digraph Tree {
node [shape=box, style="filled, rounded", color="black", fontname="helvetica"] ;
edge [fontname="helvetica"] ;
0 [label=<capital_gain &le; 5119.0<br/>gini = 0.373<br/>samples = 33915<br/>value = [25509, 8406]<br/>class = <50K>, fillcolor="#eeab7a"] ;
1 [label=<education_num &le; 12.5<br/>gini = 0.334<br/>samples = 32232<br/>value = [25415, 6817]<br/>class = <50K>, fillcolor="#eca36e"] ;
0 -> 1 [labeldistance=2.5, labelangle=45, headlabel="True"] ;
2 [label=<age &le; 29.5<br/>gini = 0.248<br/>samples = 24639<br/>value = [21074, 3565]<br/>class = <50K>, fillcolor="#e9965a"] ;
1 -> 2 ;
3 [label=<gini = 0.059<br/>samples = 8034<br/>value = [7788, 246]<br/>class = <50K>, fillcolor="#e6853f"] ;
2 -> 3 ;
4 [label=<sex &le; 0.0<br/>gini = 0.32<br/>samples = 16605<br/>value = [13286, 3319]<br/>class = <50K>, fillcolor="#eba06a"] ;
2 -> 4 ;
5 [label=<gini = 0.152<br/>samples = 5174<br/>value = [4744, 430]<br/>class = <50K>, fillcolor="#e78c4b"] ;
4 -> 5 ;
6 [label=<capital_loss &le; 1820.5<br/>gini = 0.378<br/>samples = 11431<br/>value = [8542, 2889]<br/>class = <50K>, fillcolor="#eeac7c"] ;
4 -> 6 ;
7 [label=<education_num &le; 8.5<br/>gini = 0.362<br/>samples = 11040<br/>value = [8417, 2623]<br/>class = <50K>, fillcolor="#eda877"] ;
6 -> 7 ;
8 [label=<gini = 0.152<br/>samples = 1853<br/>value = [1700, 153]<br/>class = <50K>, fillcolor="#e78c4b"] ;
7 -> 8 ;
9 [label=<age &le; 36.5<br/>gini = 0.393<br/>samples = 9187<br/>value = [6717, 2470]<br/>class = <50K>, fillcolor="#efaf82"] ;
7 -> 9 ;
10 [label=<gini = 0.301<br/>samples = 2756<br/>value = [2247, 509]<br/>class = <50K>, fillcolor="#eb9e66"] ;
9 -> 10 ;
11 [label=<hours_per_week &le; 34.5<br/>gini = 0.424<br/>samples = 6431<br/>value = [4470, 1961]<br/>class = <50K>, fillcolor="#f0b890"] ;
9 -> 11 ;
12 [label=<gini = 0.157<br/>samples = 559<br/>value = [511, 48]<br/>class = <50K>, fillcolor="#e78d4c"] ;
11 -> 12 ;
13 [label=<gini = 0.439<br/>samples = 5872<br/>value = [3959, 1913]<br/>class = <50K>, fillcolor="#f2be99"] ;
11 -> 13 ;
14 [label=<gini = 0.435<br/>samples = 391<br/>value = [125, 266]<br/>class = >50K>, fillcolor="#96cbf1"] ;
6 -> 14 ;
15 [label=<age &le; 29.5<br/>gini = 0.49<br/>samples = 7593<br/>value = [4341, 3252]<br/>class = <50K>, fillcolor="#f8dfcd"] ;
1 -> 15 ;
16 [label=<gini = 0.222<br/>samples = 1672<br/>value = [1459, 213]<br/>class = <50K>, fillcolor="#e99356"] ;
15 -> 16 ;
17 [label=<sex &le; 0.0<br/>gini = 0.5<br/>samples = 5921<br/>value = [2882, 3039]<br/>class = >50K>, fillcolor="#f5fafe"] ;
15 -> 17 ;
18 [label=<gini = 0.407<br/>samples = 1576<br/>value = [1127, 449]<br/>class = <50K>, fillcolor="#efb388"] ;
17 -> 18 ;
19 [label=<capital_loss &le; 1881.5<br/>gini = 0.482<br/>samples = 4345<br/>value = [1755, 2590]<br/>class = >50K>, fillcolor="#bfdff7"] ;
17 -> 19 ;
20 [label=<hours_per_week &le; 35.5<br/>gini = 0.492<br/>samples = 3943<br/>value = [1730, 2213]<br/>class = >50K>, fillcolor="#d4eaf9"] ;
19 -> 20 ;
21 [label=<gini = 0.42<br/>samples = 370<br/>value = [259, 111]<br/>class = <50K>, fillcolor="#f0b78e"] ;
20 -> 21 ;
22 [label=<gini = 0.484<br/>samples = 3573<br/>value = [1471, 2102]<br/>class = >50K>, fillcolor="#c4e2f7"] ;
20 -> 22 ;
23 [label=<gini = 0.117<br/>samples = 402<br/>value = [25, 377]<br/>class = >50K>, fillcolor="#46a3e7"] ;
19 -> 23 ;
24 [label=<gini = 0.105<br/>samples = 1683<br/>value = [94, 1589]<br/>class = >50K>, fillcolor="#45a3e7"] ;
0 -> 24 [labeldistance=2.5, labelangle=-45, headlabel="False"] ;
}